//Numpy array shape [3, 3, 4, 4]
//Min -0.625000000000
//Max 0.625000000000
//Number of zeros 34

#ifndef W10_H_
#define W10_H_

#ifndef __SYNTHESIS__
weight10_t w10[144];
#else
weight10_t w10[144] = {-0.125, 0.250, -0.125, 0.125, -0.250, -0.125, 0.250, -0.250, 0.125, 0.000, -0.250, 0.250, -0.250, -0.125, -0.500, 0.125, -0.125, 0.000, 0.000, -0.125, 0.000, 0.250, -0.375, 0.250, -0.250, 0.000, 0.125, 0.125, 0.000, 0.250, -0.125, 0.625, 0.375, 0.000, -0.125, 0.125, -0.125, 0.000, 0.000, -0.125, 0.125, -0.250, -0.125, 0.000, -0.500, 0.000, -0.250, 0.125, 0.000, -0.125, 0.250, 0.000, 0.000, 0.000, 0.125, 0.125, -0.125, 0.000, -0.125, 0.000, -0.125, -0.250, 0.000, 0.000, -0.125, 0.125, -0.125, 0.125, 0.250, 0.000, -0.125, 0.125, 0.125, 0.000, -0.125, -0.375, 0.000, 0.250, 0.000, 0.125, 0.250, -0.250, 0.125, -0.125, -0.250, 0.250, -0.125, -0.250, -0.375, 0.125, -0.375, 0.500, -0.250, 0.125, 0.000, -0.125, 0.000, 0.250, -0.250, -0.250, -0.250, 0.375, 0.000, -0.125, 0.125, -0.125, -0.250, 0.000, 0.125, -0.125, -0.125, 0.125, 0.375, -0.125, 0.125, 0.125, -0.375, -0.125, 0.000, 0.000, 0.000, -0.375, -0.125, 0.000, -0.125, -0.125, 0.250, -0.125, 0.500, 0.250, 0.000, 0.250, 0.250, -0.250, -0.125, -0.125, 0.125, -0.250, 0.000, -0.250, -0.250, -0.625, 0.000, -0.500};
#endif

#endif
